tree
version=v4
num_class=1
num_tree_per_iteration=1
label_index=0
max_feature_idx=17
objective=regression
feature_names=EURO_1 EURO_2 EURO_3 EURO_4 EURO_5 EURO_6 EURO_CLEAN Previous TotalFleet CARS_PER_CAPITA EURO_1_PER_CAPITA EURO_2_PER_CAPITA EURO_3_PER_CAPITA EURO_4_PER_CAPITA EURO_5_PER_CAPITA EURO_6_PER_CAPITA EURO_CLEAN_PER_CAPITA Previous_PER_CAPITA
feature_infos=[4:88564] [16:222965] [27:490602] [17:556688] [3:348327] [0:618864] [0:32059] [18:349711] [95:2112611] [0.013090808874190436:1.0218225499683007] [0.00055119195259749213:0.055862392239183156] [0.001679084898730192:0.14281823443298267] [0.003358169797460384:0.32499233990399345] [0.0023087417357540141:0.26840976406904299] [0.00041339396444811904:0.15327000987301262] [0:0.28352154579481109] [0:0.0096214475538222138] [0.0024803637866887144:0.1406180869990869]
tree_sizes=1725 1812 1812 1831 1793 1821 1817 1819 1821 1837 1824 1840 1824 1833 1810 1832 1830 1843 1829 1543 426 602 1393 613 797 709 431

Tree=0
num_leaves=19
num_cat=0
split_feature=9 8 9 17 8 9 17 9 8 11 2 9 6 9 15 17 0 9
split_gain=6.92941 4.09533 5.91927 4.96965 2.52336 2.42277 3.65174 2.33414 1.84695 4.00409 1.74618 2.08699 1.74319 1.24223 0.978705 0.967783 0.80481 0.765039
threshold=0.89890203952762338 105874.50000000001 0.74668039432718059 0.11211068007655053 30887.000000000004 0.61704646357853676 0.088192111643842178 0.87109180318362733 31180.000000000004 0.041564063472355174 72161.500000000015 0.75691815545428198 122.50000000000001 0.71175533924089185 0.068526812089595004 0.068201756340019362 48939.500000000007 0.78510357374872797
decision_type=2 2 2 2 2 2 2 2 2 2 2 2 2 2 2 2 2 2
left_child=1 2 8 5 -2 -3 10 16 -1 -10 11 15 13 14 -11 -7 -8 -13
right_child=4 3 -4 -5 -6 6 7 -9 9 12 -12 17 -14 -15 -16 -17 -18 -19
leaf_value=0.3199128580523749 0.33164051422457047 0.31893258246591616 0.31300602939200001 0.35474680662258079 0.35653254580882388 0.33903828004603476 0.31810297850815977 0.34670759595962292 0.35464392764005587 0.32813313950807971 0.34792520147831557 0.30931988547151584 0.3186078931653597 0.32286623486590144 0.33869941032528722 0.33066004704649249 0.33060735518621931 0.32948621004382
leaf_weight=351 72 246 503 66 90 228 318 32 50 194 74 46 191 176 152 335 55 26
leaf_count=351 72 246 503 66 90 228 318 32 50 194 74 46 191 176 152 335 55 26
internal_value=0.326195 0.325143 0.321777 0.328948 0.345754 0.327647 0.329595 0.322235 0.325768 0.328449 0.33382 0.332093 0.32652 0.329462 0.332862 0.334112 0.320002 0.316713
internal_weight=3205 3043 1617 1426 162 1360 1114 405 1114 763 709 635 713 522 346 563 373 72
internal_count=3205 3043 1617 1426 162 1360 1114 405 1114 763 709 635 713 522 346 563 373 72
is_linear=0
shrinkage=1


Tree=1
num_leaves=19
num_cat=0
split_feature=14 3 17 17 7 7 17 17 5 14 17 12 14 5 5 7 17 7
split_gain=7.88137 2.7821 4.24991 2.28661 2.37968 1.80117 2.13585 1.66707 1.59958 1.30769 1.51688 1.64501 1.1548 0.97744 1.89551 0.936873 0.833935 0.783582
threshold=0.11721869986109762 26649.500000000004 0.11211068007655053 0.088192111643842178 38157.000000000007 21747.000000000004 0.074329464812607229 0.085209806160879573 21007.500000000004 0.098470117643320712 0.072027534659988887 0.12974887662639706 0.084332413780421667 11821.000000000002 6458.0000000000009 39624.000000000007 0.099760350829715794 5387.5000000000009
decision_type=2 2 2 2 2 2 2 2 2 2 2 2 2 2 2 2 2 2
left_child=1 7 3 4 5 6 12 9 16 10 13 -12 -3 14 -1 -6 -2 -9
right_child=8 2 -4 -5 15 -7 -8 17 -10 -11 11 -13 -14 -15 -16 -17 -18 -19
leaf_value=-0.0041193753578489282 0.016506800077005314 -0.0023807019026119984 0.025840748500156972 -0.0057335580040173374 0.034414792624851351 -0.0066879598883926037 -0.0028553826502864519 0.00061101818632720449 0.032678941663244067 -0.0066452071245661302 0.021135203558812057 0.0024438277335101909 0.011126953251617576 -0.010506392847144677 0.016878213394647571 0.010822846253827916 -0.00011913812468975864 -0.0094711437037235061
leaf_weight=209 122 71 66 366 26 182 245 82 54 334 52 292 326 125 49 52 35 517
leaf_count=209 122 71 66 366 26 182 245 82 54 334 52 292 326 125 49 52 35 517
internal_value=3.88581e-06 -0.00128117 0.00202981 0.000741733 0.00339299 0.00180778 0.00425308 -0.00395065 0.0181626 -0.00160169 0.000705029 0.00541396 0.00867205 -0.00348941 0 0.019507 0.012744 -0.00806723
internal_weight=3205 2994 1334 1268 902 824 642 1660 211 1061 727 344 397 383 258 78 157 599
internal_count=3205 2994 1334 1268 902 824 642 1660 211 1061 727 344 397 383 258 78 157 599
is_linear=0
shrinkage=0.0976422


Tree=2
num_leaves=19
num_cat=0
split_feature=14 9 3 8 6 8 1 0 5 10 14 3 8 9 8 9 3 2
split_gain=6.44462 2.72713 5.94937 2.64217 2.50313 1.52735 1.80452 1.52218 1.34724 1.12946 1.32069 1.25671 1.68714 1.09035 0.841419 0.813522 0.803134 0.793265
threshold=0.11721869986109762 0.74605076749073518 35695.500000000007 184784.00000000003 798.50000000000011 32147.000000000004 2842.0000000000005 9079.0000000000018 25554.500000000004 0.0098104433880381332 0.084332413780421667 26961.500000000004 59258.500000000007 0.66564697966624176 48841.500000000007 0.61704646357853676 11759.500000000002 150355.50000000003
decision_type=2 2 2 2 2 2 2 2 2 2 2 2 2 2 2 2 2 2
left_child=1 5 14 -4 -5 -1 -7 9 -2 -8 -11 12 16 -14 -3 -13 -12 -9
right_child=8 2 3 4 -6 6 7 17 -10 10 11 15 13 -15 -16 -17 -18 -19
leaf_value=-0.0051442508428538938 0.012028049366721376 -0.0021480885177759391 0.023788810299897552 -0.0069128072695836002 0.019751607704294391 0.023839715273799047 0.021825536291306163 -0.0082102785130211981 0.03162652039702199 -0.0026900206964441597 0.0015841798432300288 -0.0066331127275693754 0.0070893235564107281 -0.0069605627814312548 -0.01261288875336134 0.0080439342453076067 0.014260023949846828 0.0031757354173631712
leaf_weight=358 167 91 65 116 45 33 27 210 44 379 108 36 64 249 505 542 89 77
leaf_count=358 167 91 65 116 45 33 27 210 44 379 108 36 64 249 505 542 89 77
internal_value=1.05869e-05 -0.00115098 -0.00593627 0.00746867 0.000585308 0.000656361 0.00181391 0.00137233 0.0164314 0.00263108 0.0022397 0.00397302 0.000403285 -0.00401278 -0.0110531 0.00708423 0.00747024 -0.00510039
internal_weight=3205 2994 822 226 161 2172 1814 1781 211 1494 1467 1088 510 313 596 578 197 287
internal_count=3205 2994 822 226 161 2172 1814 1781 211 1494 1467 1088 510 313 596 578 197 287
is_linear=0
shrinkage=0.0976422


Tree=3
num_leaves=19
num_cat=0
split_feature=14 3 17 13 17 7 7 17 17 8 7 2 11 5 14 17 7 7
split_gain=5.27361 1.78865 2.87859 1.94936 1.5584 1.74559 1.37953 1.75115 1.22328 0.93529 0.807076 1.06103 2.53232 1.67591 0.723085 0.70349 0.703412 0.690066
threshold=0.11721869986109762 26649.500000000004 0.11211068007655053 0.18384525224419274 0.088192111643842178 38157.000000000007 17675.000000000004 0.074329464812607229 0.097330663969926956 48448.000000000007 11701.500000000002 3929.5000000000005 0.041564063472355174 12900.500000000002 0.083154236370082527 0.082868268305539269 39624.000000000007 9291.0000000000018
decision_type=2 2 2 2 2 2 2 2 2 2 2 2 2 2 2 2 2 2
left_child=1 3 4 10 5 6 7 14 -2 -5 11 -1 -13 15 -3 -14 -7 -15
right_child=8 2 -4 9 -6 16 -8 -9 -10 -11 -12 12 13 17 -16 -17 -18 -19
leaf_value=-0.005347287384683137 0.019695410344877241 -0.0030190478887631151 0.021217093804417927 -3.1469865796431483e-05 -0.0047852520105494539 0.029481846016782873 -0.0032240815614695472 -0.002136823860696707 0.0030562182054408929 -0.012283411267168814 -0.0082430167861166654 0.022158796740517146 0.0062841365775439494 -0.010659740558860095 0.011686097747471001 -0.001077982612475352 0.0089916839861517196 -0.0010305837229314216
leaf_weight=317 148 34 66 79 366 26 350 197 63 274 145 50 301 147 243 203 52 144
leaf_count=317 148 34 66 79 366 26 350 197 63 274 145 50 301 147 243 203 52 144
internal_value=1.71185e-05 -0.00103317 0.00162009 -0.00317424 0.000557858 0.0027487 0.00138861 0.00482686 0.0148718 -0.00960036 -0.00141538 -0.000537993 0.00125552 -8.85332e-05 0.00981669 0.00329482 0.0165503 -0.00598551
internal_weight=3205 2994 1334 1660 1268 902 824 474 211 353 1307 1162 845 795 277 504 78 291
internal_count=3205 2994 1334 1660 1268 902 824 474 211 353 1307 1162 845 795 277 504 78 291
is_linear=0
shrinkage=0.0976422


Tree=4
num_leaves=19
num_cat=0
split_feature=9 8 9 9 0 8 9 9 3 4 4 11 8 9 4 8 8 8
split_gain=3.53637 1.76477 3.17671 1.61818 1.58855 1.54926 1.36233 0.999475 1.61569 2.32447 0.981222 1.9067 0.881913 0.909592 0.687869 0.683599 0.492404 0.425
threshold=0.89890203952762338 105874.50000000001 0.74668039432718059 0.61790308005945649 8632.0000000000018 30887.000000000004 0.7888510197331503 0.74461723731106944 35695.500000000007 26854.500000000004 4376.0000000000009 0.042641476855245448 59258.500000000007 0.64482818229437855 10959.500000000002 54788.000000000007 114825.50000000001 132948.50000000003
decision_type=2 2 2 2 2 2 2 2 2 2 2 2 2 2 2 2 2 2
left_child=1 2 10 -3 6 -2 7 16 -9 -10 -1 -12 15 -14 -4 -13 -5 -7
right_child=5 3 14 4 -6 17 -8 8 9 -11 11 12 13 -15 -16 -17 -18 -19
leaf_value=-0.0041248317351012332 0.0029344396741798882 -0.0052495114490872467 -0.01038781204548133 0.01910270961278264 -0.0022640817513757245 0.01662964687723386 0.017899975720560266 -0.014484239105928359 0.020533048519954661 -0.0093516303922738624 0.019372393901828204 0.0025492443729155253 0.007222812229000149 -0.0042077655813745514 0.0029952036972329993 0.015467510569443624 0.0054477947854286177 0.033466372967033045
leaf_weight=370 72 254 466 26 341 63 77 63 47 48 54 208 79 355 37 48 570 27
leaf_count=370 72 254 466 26 341 63 77 63 47 48 54 208 79 355 37 48 570 27
internal_value=1.75766e-05 -0.000729542 -0.0029398 0.00176634 0.00330617 0.0139949 0.00561071 0.00429362 -0.00251775 0.00538276 -1.38027e-05 0.00201485 0.000584906 -0.00206895 -0.00936482 0.00512719 0.00612781 0.0224318
internal_weight=3205 3043 1617 1426 1172 162 831 754 158 95 1114 744 690 434 503 256 596 90
internal_count=3205 3043 1617 1426 1172 162 831 754 158 95 1114 744 690 434 503 256 596 90
is_linear=0
shrinkage=0.0976422


Tree=5
num_leaves=19
num_cat=0
split_feature=14 9 3 17 2 0 5 9 4 17 17 17 15 0 5 2 3 17
split_gain=3.62046 1.66168 3.34459 1.42819 1.56822 1.05153 0.961529 0.89749 0.971907 1.53764 0.836003 0.784255 0.772891 0.772394 0.696633 0.604494 0.617051 0.54908
threshold=0.11721869986109762 0.74605076749073518 35695.500000000007 0.11211068007655053 72161.500000000015 7765.5000000000009 26183.000000000004 0.58919211248855985 4376.0000000000009 0.082192363415264438 0.058670761877688986 0.094021735671949255 0.18890984532855909 3476.5000000000005 77.500000000000014 13574.500000000002 9458.0000000000018 0.099760350829715794
decision_type=2 2 2 2 2 2 2 2 2 2 2 2 2 2 2 2 2 2
left_child=1 7 11 4 -4 -6 17 14 -9 10 -10 -3 15 -13 -1 16 -12 -2
right_child=6 2 3 -5 5 -7 -8 8 9 -11 12 13 -14 -15 -16 -17 -18 -19
leaf_value=0.0017467815738668659 0.011521414388204938 -0.012014629715259344 -0.010386457711992427 0.017332747347700121 0.024738180581048722 0.0016520308913542817 0.025317364892099112 -0.0043108852000300858 0.013964533329542474 -0.0017971064668224589 0.0016697625572536432 -0.0015563249240144246 -0.0081954718251600455 -0.012630620669684688 -0.0073570908410239642 0.0030586403625498791 0.014025602826110681 -0.001754344502843196
leaf_weight=122 133 296 70 66 26 64 43 241 82 559 65 216 47 84 216 732 108 35
leaf_count=122 133 296 70 66 26 64 43 241 82 559 65 216 47 84 216 732 108 35
internal_value=2.42586e-05 -0.000845139 -0.00458109 0.00545942 0.000320602 0.00886116 0.0123331 0.000564257 0.00142339 0.00230481 0.00453676 -0.00841983 0.00368239 -0.00476834 -0.0040334 0.00433223 0.00954069 0.00867442
internal_weight=3205 2994 822 226 160 90 211 2172 1834 1593 1034 596 952 300 338 905 173 168
internal_count=3205 2994 822 226 160 90 211 2172 1834 1593 1034 596 952 300 338 905 173 168
is_linear=0
shrinkage=0.0976422


Tree=6
num_leaves=19
num_cat=0
split_feature=9 4 9 17 4 0 11 5 5 7 9 9 17 4 9 15 4 4
split_gain=2.53276 1.18062 2.1382 1.53265 1.28922 1.14515 1.04881 1.30462 1.05052 1.02154 0.818457 0.782729 1.02182 1.08561 1.05697 0.818016 0.520209 0.675371
threshold=0.89890203952762338 13034.000000000002 0.72018159420113104 0.11056203518572107 4376.0000000000009 1067.5000000000002 0.041169673031977751 14582.500000000002 5734.5000000000009 11350.500000000002 0.78510357374872797 0.61044862654413967 0.092275670733389173 17965.000000000004 0.70814762858544411 0.20044289956531541 5591.0000000000009 9807.0000000000018
decision_type=2 2 2 2 2 2 2 2 2 2 2 2 2 2 2 2 2 2
left_child=1 2 4 9 -1 -2 -6 8 -8 -3 16 -11 13 14 -13 -15 -4 -18
right_child=5 3 10 -5 6 -7 7 -9 -10 11 -12 12 -14 15 -16 -17 17 -19
leaf_value=-0.0038209531982577633 0.004232853483318479 0.016463594886279 0.0029022638404189046 0.015096980672543923 0.017412819498553271 0.021047216851250303 0.00095096938652931417 -0.0056638186949929557 0.01207764373085491 -0.0056306272961251375 -0.01155278201533896 0.0025774795438934335 -0.0034973877050519489 0.0040421824469312638 -0.011931944464198613 0.021056173925461896 -0.008474977459603187 -0.0003684411826785716
leaf_weight=340 91 36 79 72 48 71 197 133 140 187 209 111 323 629 80 27 273 159
leaf_count=340 91 36 79 72 48 71 197 133 140 187 209 111 323 629 80 27 273 159
internal_value=2.50333e-05 -0.000606493 -0.00246183 0.00138185 0.000815157 0.0118545 0.00389116 0.00241322 0.00566091 0.000642353 -0.00638062 0.000188929 0.00113998 0.00293073 -0.00347536 0.00482436 -0.00420008 -0.00554199
internal_weight=3205 3043 1578 1465 858 162 518 470 337 1393 720 1357 1170 847 191 656 511 432
internal_count=3205 3043 1578 1465 858 162 518 470 337 1393 720 1357 1170 847 191 656 511 432
is_linear=0
shrinkage=0.0976422


Tree=7
num_leaves=19
num_cat=0
split_feature=4 7 17 17 7 0 8 7 3 0 7 2 4 11 10 7 4 8
split_gain=1.06452 2.34589 1.36631 0.554117 0.829013 0.758717 0.627179 0.55078 0.72273 0.538968 0.50555 0.489755 0.662639 1.30534 0.569099 0.604529 0.578268 0.853797
threshold=17965.000000000004 13531.500000000002 0.11211068007655053 0.091034585875660753 38157.000000000007 7444.0000000000009 239054.00000000003 13202.500000000002 27433.000000000004 48939.500000000007 12183.500000000002 14841.500000000002 2445.5000000000005 0.044408950974924026 0.041209079626857457 3063.0000000000005 6816.0000000000009 47245.500000000007
decision_type=2 2 2 2 2 2 2 2 2 2 2 2 2 2 2 2 2 2
left_child=7 10 3 4 6 -6 -3 8 11 -5 -2 12 -1 -14 15 -15 17 -17
right_child=1 2 -4 9 5 -7 -8 -9 -10 -11 -12 -13 13 14 -16 16 -18 -19
leaf_value=-0.0038056347193279176 0.025382005166284569 0.0012163595276306921 0.014253767633818434 -0.0049703384701808408 0.023065404964434724 0.0043644373142371655 -0.0078558112112818018 -0.0084305215175892543 0.0076981331225113693 0.0053386621329611882 0.010433299781725551 -0.0035964553964638012 0.014755175700342831 0.0059564714648807447 0.009619226110166329 6.1422161250998633e-05 0.0019022478854087172 -0.0098261069073201437
leaf_weight=335 33 541 66 289 26 99 82 100 84 55 92 642 62 107 54 172 212 154
leaf_count=335 33 541 66 289 26 99 82 100 84 55 92 642 62 107 54 172 212 154
internal_value=2.73676e-05 0.00220837 0.000811664 -9.48021e-06 0.00146738 0.00866149 0 -0.0014211 -0.00101951 -0.00325671 0.0148204 -0.00145771 -0.000186613 0.00139139 0.000147328 -0.000647009 -0.00200554 -0.00459101
internal_weight=3205 1283 1158 1092 748 125 623 1922 1822 344 125 1738 1096 761 699 645 538 326
internal_count=3205 1283 1158 1092 748 125 623 1922 1822 344 125 1738 1096 761 699 645 538 326
is_linear=0
shrinkage=0.0976422


Tree=8
num_leaves=19
num_cat=0
split_feature=14 11 7 13 5 6 7 16 6 7 11 5 7 7 4 3 4 5
split_gain=2.2005 0.76237 0.847584 1.13582 0.650395 0.610392 0.598154 0.574724 0.561608 0.666686 0.492482 0.446928 0.51964 0.817328 0.429454 0.689801 0.564294 0.694929
threshold=0.11721869986109762 0.08084494113785172 8280.0000000000018 0.14259834378145711 26183.000000000004 70.500000000000014 15334.500000000002 0.0034407163427822734 1332.0000000000002 72246.500000000015 0.058555051699321202 13382.000000000002 5807.0000000000009 6968.5000000000009 17254.000000000004 19252.000000000004 25710.500000000004 54550.500000000007
decision_type=2 2 2 2 2 2 2 2 2 2 2 2 2 2 2 2 2 2
left_child=1 2 7 -4 -2 6 -5 11 9 14 -10 12 -1 -14 15 -7 -16 -18
right_child=4 -3 3 5 -6 8 -8 -9 10 -11 -12 -13 13 -15 16 -17 17 -19
leaf_value=-0.0032667389838113817 0.0066074942526466269 -0.0028291886670914531 -0.0037179180373926052 0.011908494999997738 0.020316777750549943 0.004027674878406085 -0.0014661728769951139 0.010084221724916491 0.0034423172566886845 -0.0090775655019148267 0.019646100699602351 -0.0091522580880499856 0.013999193782640898 -0.0047331158863858106 0.0064262992002220064 -0.0063765680351580197 -0.0044382335758444951 0.006937227809055411
leaf_weight=441 168 1009 271 129 43 118 39 31 50 51 30 97 44 40 311 120 132 81
leaf_count=441 168 1009 271 129 43 118 39 31 50 51 30 97 44 40 311 120 132 81
internal_value=3.24502e-05 -0.000644263 0.000460086 0.00187871 0.00962949 0.00332701 0.00872938 -0.00240678 0.00227695 0.00147431 0.0100214 -0.00308293 -0.00190317 0.00498779 0.00222165 -0.00116159 0.00378681 -1.65206e-05
internal_weight=3205 2994 1985 1332 211 1061 168 653 893 813 80 622 525 84 762 238 524 213
internal_count=3205 2994 1985 1332 211 1061 168 653 893 813 80 622 525 84 762 238 524 213
is_linear=0
shrinkage=0.0976422


Tree=9
num_leaves=19
num_cat=0
split_feature=14 11 7 6 14 15 5 7 7 8 7 0 16 11 8 12 11 15
split_gain=1.80279 0.622152 0.690934 0.803053 0.612252 0.762923 0.533641 0.532419 0.690627 0.585685 1.05578 0.553237 0.473317 0.463876 0.480555 0.442586 0.504138 0.393171
threshold=0.11721869986109762 0.08084494113785172 8280.0000000000018 82.500000000000014 0.099379077900441551 0.19467700346313746 26183.000000000004 65858.500000000015 38157.000000000007 192252.00000000003 24995.500000000004 20477.500000000004 0.0034407163427822734 0.038459758535051673 174263.00000000003 0.15790529855285365 0.069608580753099586 0.1394954880525541
decision_type=2 2 2 2 2 2 2 2 2 2 2 2 2 2 2 2 2 2
left_child=1 2 12 15 7 -6 -2 8 9 10 13 -9 17 -5 -15 16 -4 -1
right_child=6 -3 3 4 5 -7 -8 11 -10 -11 -12 -13 -14 14 -16 -17 -18 -19
leaf_value=-0.00040279483644981495 0.0059694498938003653 -0.0025534532122034369 0.0089850538350491702 0.011152575880817609 0.0029282351430143503 0.020078574757176185 0.01841594381561289 -0.012512486217320399 0.01164539267773435 -0.0047184129495391573 0.016442397081448842 0.0015650356876108094 0.0091557705503992337 -0.0019822048913826816 0.0068203064630911149 0.014209240820080992 -0.0030801765799542882 -0.0053708675065688967
leaf_weight=328 168 1009 77 32 211 27 43 64 47 208 39 41 31 403 67 63 53 294
leaf_count=328 168 1009 77 32 211 27 43 64 47 208 39 41 31 403 67 63 53 294
internal_value=3.26144e-05 -0.000579435 0.000417548 0.00169902 0.000691637 0.00508111 0.00871962 -0.000458616 0.000390679 -0.000321993 0.00134987 -0.00693774 -0.00216984 8.93414e-05 -0.000671993 0.00749974 0.00397332 -0.00278529
internal_weight=3205 2994 1985 1332 1139 238 211 901 796 749 541 105 653 502 470 193 130 622
internal_count=3205 2994 1985 1332 1139 238 211 901 796 749 541 105 653 502 470 193 130 622
is_linear=0
shrinkage=0.0976422


Tree=10
num_leaves=19
num_cat=0
split_feature=14 11 15 7 13 0 7 8 3 5 6 7 7 1 8 3 13 6
split_gain=1.49074 0.583589 0.544766 0.544694 0.851501 0.634704 0.859565 0.554216 0.51223 0.405995 0.402727 0.476518 0.637429 0.399074 0.372264 0.409642 0.571201 0.537445
threshold=0.11253375394886704 0.080427386096767736 0.14350077499130284 8280.0000000000018 0.13589527925273506 9728.5000000000018 38157.000000000007 197693.00000000003 136440.00000000003 13382.000000000002 151.50000000000003 5807.0000000000009 7017.0000000000009 29741.500000000004 49174.000000000007 35695.500000000007 0.19339685975867205 62.500000000000007
decision_type=2 2 2 2 2 2 2 2 2 2 2 2 2 2 2 2 2 2
left_child=1 3 -2 9 -5 6 7 -6 -7 10 11 -1 -13 -8 -3 16 -16 -17
right_child=2 14 -4 4 5 8 13 -9 -10 -11 -12 12 -14 -15 15 17 -18 -19
leaf_value=-0.00287126795828562 0.0038950349231490666 0.0011352921169306897 0.013547790083660444 -0.0056275705442937673 0.0033021231832844043 -0.0066100777261588932 0.022843344253526202 -0.0042233154733219537 0.0042132033934014967 -0.0077610975321958974 0.010062124935121125 0.012925051666029648 -0.0042853850658002065 0.0073281669176615263 -0.0026151194193990072 0.006136039960067969 -0.0094247628285485992 -0.0034587690349301148
leaf_weight=427 202 199 81 140 814 120 26 102 60 97 28 44 34 55 345 82 186 163
leaf_count=427 202 199 81 140 814 120 26 102 60 97 28 44 34 55 345 82 186 163
internal_value=3.6868e-05 -0.000615164 0.00678396 0.000354565 0.00149042 0.002358 0.00332844 0.00244012 -0.00290979 -0.00199245 -0.000889735 -0.00156292 0.00530216 0.0129021 -0.00256466 -0.00353412 -0.00505465 -0.000161652
internal_weight=3205 2922 283 1947 1317 1177 997 916 180 630 533 505 78 81 975 776 531 245
internal_count=3205 2922 283 1947 1317 1177 997 916 180 630 533 505 78 81 975 776 531 245
is_linear=0
shrinkage=0.0976422


Tree=11
num_leaves=19
num_cat=0
split_feature=4 7 13 11 4 8 3 8 16 7 13 8 10 16 7 7 11 13
split_gain=0.568558 1.42508 0.549512 1.1147 0.524301 0.425555 0.569876 0.4042 0.356149 0.316346 0.30684 0.837372 0.689702 0.383698 0.586511 0.7248 0.272556 0.27139
threshold=17965.000000000004 14176.000000000002 0.16197614944241126 0.066979823589757195 24932.500000000004 127404.00000000001 27433.000000000004 136239.50000000003 0.0033032992485870962 12183.500000000002 0.18384525224419274 49174.000000000007 0.036475964816320913 0.00077279823131649373 11350.500000000002 6052.5000000000009 0.041564063472355174 0.18739458992127012
decision_type=2 2 2 2 2 2 2 2 2 2 2 2 2 2 2 2 2 2
left_child=5 9 -3 -4 7 6 8 -5 10 -2 13 12 -12 14 15 -1 -10 -8
right_child=1 2 3 4 -6 -7 17 -9 16 -11 11 -13 -14 -15 -16 -17 -18 -19
leaf_value=-0.00052779664032999191 0.018499731383911314 -0.0021017808593483001 0.009753527598361263 -0.0022582762122085607 -0.0025933860610060726 -0.0078427436324266016 0.0023532218070262782 0.0073736610372274842 0.012791507390967915 0.0073714716438026216 -0.001522686161146332 -0.0069144567204766439 0.013183790960616473 -0.002421565394396797 -0.0051295000229509384 0.0068713384160061231 0.0011083410434490815 0.014334624716514775
leaf_weight=303 33 493 143 59 291 82 53 119 26 145 133 278 37 581 116 210 73 30
leaf_count=303 33 493 143 59 291 82 53 119 26 145 133 278 37 581 116 210 73 30
internal_value=3.54682e-05 0.00163059 0.000303405 0.00226698 -1.21392e-05 -0.00102173 -0.000701548 0.00410356 -0.0010857 0.00969327 -0.00143419 -0.00361884 0.00169581 -0.000608025 0.00104447 0.00248461 0.00451306 0.00708989
internal_weight=3205 1283 1105 612 469 1922 1840 178 1757 178 1658 448 170 1210 629 513 99 83
internal_count=3205 1283 1105 612 469 1922 1840 178 1757 178 1658 448 170 1210 629 513 99 83
is_linear=0
shrinkage=0.0976422


Tree=12
num_leaves=19
num_cat=0
split_feature=9 9 3 17 7 0 0 5 0 7 11 5 3 6 9 17 3 7
split_gain=0.971795 0.613277 1.2772 0.613192 0.885845 0.592439 0.448457 0.378528 0.367399 0.585689 0.681663 0.472219 0.414965 0.529041 0.39759 0.360525 0.349203 0.381914
threshold=0.89890203952762338 0.74605076749073518 35695.500000000007 0.11211068007655053 38157.000000000007 1067.5000000000002 7692.0000000000009 3210.0000000000005 446.00000000000006 17675.000000000004 0.037091653502591325 77.500000000000014 27191.000000000004 122.50000000000001 0.70265753094313632 0.065354905866653629 143061.50000000003 41272.500000000007
decision_type=2 2 2 2 2 2 2 2 2 2 2 2 2 2 2 2 2 2
left_child=1 8 -3 4 -4 7 -6 -2 11 10 -10 -1 13 -12 16 -14 17 -11
right_child=5 2 3 -5 6 -7 -8 -9 9 14 12 -13 15 -15 -16 -17 -18 -19
leaf_value=0.0023502421740614738 -0.0068140836132922749 -0.0050551551631577698 -0.0084471819201678063 0.011088257923789315 0.016202551804398706 0.013965011789829951 0.001875350844552806 0.0062550887774624848 0.013796144326717302 -0.0025593482272372628 0.002048119691691865 -0.0059698886673509761 0.0090779382596233252 -0.0033297644740708831 0.0025164453501086031 0.0024135772167245477 0.0029041525679759229 -0.010467045020256067
leaf_weight=100 29 598 69 66 26 71 99 62 45 305 598 170 110 243 170 294 76 74
leaf_count=100 29 598 69 66 26 71 99 62 45 305 598 170 110 243 170 294 76 74
internal_value=3.55657e-05 -0.000353751 -0.00256585 0.00309483 0.000215137 0.00736456 0.00517463 0.00186771 0.00050917 0.000991269 0.00218369 -0.00283569 0.00173125 0.000471653 -0.00144403 0.00430037 -0.00296238 -0.00418849
internal_weight=3205 3043 858 260 194 162 125 91 2185 1915 1290 270 1245 841 625 404 455 379
internal_count=3205 3043 858 260 194 162 125 91 2185 1915 1290 270 1245 841 625 404 455 379
is_linear=0
shrinkage=0.0976422


Tree=13
num_leaves=19
num_cat=0
split_feature=9 3 9 4 4 17 9 5 7 11 4 4 5 3 10 17 4 5
split_gain=0.810662 0.761412 0.623113 1.10258 0.650208 0.7532 0.302373 0.473479 0.371628 0.61658 0.46495 0.376751 0.324239 0.295356 0.272136 0.260339 0.272646 0.24864
threshold=0.87109180318362733 7848.0000000000009 0.74605076749073518 18517.000000000004 26012.000000000004 0.095499499641412106 0.58919211248855985 77.500000000000014 61833.000000000007 0.037091653502591325 77307.500000000015 2173.5000000000005 154.00000000000003 11201.500000000002 0.026442394329899983 0.091799392775763752 10959.500000000002 54550.500000000007
decision_type=2 2 2 2 2 2 2 2 2 2 2 2 2 2 2 2 2 2
left_child=2 14 6 13 -5 -6 7 -1 9 -8 -10 -11 -9 -4 -2 -15 -17 -13
right_child=1 -3 3 4 5 -7 8 12 10 11 -12 17 -14 15 -16 16 -18 -19
leaf_value=0.0025523472730848611 0.0061452327250353829 0.011613423463972202 0.0037708272458777527 0.010262269011851835 0.0053775191812596972 -0.0073390365616624485 0.012502976604720113 -0.014791818296364492 -0.0072652173819309929 -0.0051218858991330003 0.0024706434320472636 0.0011558460757455104 -0.0033385797387630398 -0.0080160504526023916 -0.0033955161034881563 -0.0047499155627006634 0.0038442186137096481 0.0068773593687172976
leaf_weight=122 44 106 30 73 92 82 45 27 108 85 77 1456 189 252 73 230 38 76
leaf_count=122 44 106 30 73 92 82 45 27 108 85 77 1456 189 252 73 230 38 76
internal_value=3.63951e-05 0.0056942 -0.000384762 -0.00272126 0.00264248 -0.000540475 0.000461925 -0.00220143 0.000959544 0.00142888 -0.0031449 0.00109687 -0.00495731 -0.00515929 0.000100811 -0.00571627 -0.00345494 0.00145798
internal_weight=3205 223 2982 797 247 174 2185 338 1847 1662 185 1617 216 550 117 520 268 1532
internal_count=3205 223 2982 797 247 174 2185 338 1847 1662 185 1617 216 550 117 520 268 1532
is_linear=0
shrinkage=0.0976422


Tree=14
num_leaves=19
num_cat=0
split_feature=14 9 3 11 4 15 13 5 4 17 4 4 1 13 1 3 7 7
split_gain=0.776584 0.581745 0.841193 0.46838 0.497397 0.312069 0.308862 0.412386 0.290005 0.315201 0.255123 0.254099 0.247171 0.220933 0.218032 0.203828 0.186104 0.349026
threshold=0.11253375394886704 0.74605076749073518 35695.500000000007 0.064194731345511666 26854.500000000004 0.14350077499130284 0.13589527925273506 77.500000000000014 2173.5000000000005 0.089771766063186584 30298.000000000004 5700.5000000000009 4026.0000000000005 0.16686738892532801 1366.0000000000002 6798.5000000000009 44058.500000000007 17675.000000000004
decision_type=2 2 2 2 2 2 2 2 2 2 2 2 2 2 2 2 2 2
left_child=1 6 11 -4 -5 12 7 -1 -8 16 -6 13 -2 -3 -9 -7 17 -10
right_child=5 2 3 4 10 15 8 14 9 -11 -12 -13 -14 -15 -16 -17 -18 -19
leaf_value=0.0024788986142506905 -0.0029166656865796782 -0.0050832587192340475 0.01186984868054671 0.0081531098342566659 -0.0099241419606899486 0.0023663483515254575 -0.0046325747451636387 -0.013441357842610017 0.0022854261427325941 -0.0016743955703590935 0 -0.0054414752719953207 0.0047095936536147107 0.0049177597808280401 -0.0037227675624978067 0.013581516330705335 0.0083946923552739167 -0.0014854762073995627
leaf_weight=93 51 36 40 50 36 28 85 27 1150 311 74 497 151 45 153 53 38 287
leaf_count=93 51 36 40 50 36 28 85 27 1150 311 74 497 151 45 153 53 38 287
internal_value=3.45142e-05 -0.000434724 -0.00272094 0.00266966 0.000161749 0.00490548 0.000389223 -0.00265398 0.000843854 0.00111786 -0.00340623 -0.00461587 0.00269806 0.000269059 -0.00539046 0.0100354 0.0017186 0.00152043
internal_weight=3205 2922 778 200 160 283 2144 273 1871 1786 110 578 202 81 180 81 1475 1437
internal_count=3205 2922 778 200 160 283 2144 273 1871 1786 110 578 202 81 180 81 1475 1437
is_linear=0
shrinkage=0.0976422


Tree=15
num_leaves=19
num_cat=0
split_feature=9 8 9 4 8 5 13 5 8 0 12 13 15 15 2 13 2 0
split_gain=0.564232 0.610266 0.421191 0.71721 0.615739 0.444587 0.257334 0.339429 0.29186 0.36937 0.277634 0.406852 0.281422 0.462076 0.357537 0.293921 0.257143 0.237383
threshold=0.87109180318362733 30887.000000000004 0.74605076749073518 18517.000000000004 184372.50000000003 50927.000000000007 0.13589527925273506 77.500000000000014 32147.000000000004 9877.5000000000018 0.12911085703149319 0.16548193542208808 0.14438820489631446 0.11710456426471938 30019.500000000004 0.1898001501731206 150355.50000000003 1675.0000000000002
decision_type=2 2 2 2 2 2 2 2 2 2 2 2 2 2 2 2 2 2
left_child=2 -2 6 -4 -5 -6 7 -1 -8 10 17 -12 13 15 -14 -13 -11 -10
right_child=1 -3 3 4 5 -7 8 -9 9 16 11 12 14 -15 -16 -17 -18 -19
leaf_value=0.0022416401921249831 -0.0008746646030337212 0.0092346623098385795 -0.0042088325875769767 0.010535798210893539 -0.0045718627224886933 0.0050155575324229429 -0.0024047908994425031 -0.0048898399726760352 0.009737713439212637 -0.0042507250226835689 -0.00074826725453189886 0.0038835615379784619 -0.0064906642824552703 0.012881828109468705 0.0058840774945820131 -0.0022634556105714191 0.0031589272942868125 0.0028275810321284683
leaf_weight=93 98 125 550 60 112 75 235 180 67 173 553 404 60 47 32 86 56 199
leaf_count=93 98 125 550 60 112 75 235 180 67 173 553 404 60 47 32 86 56 199
internal_value=3.11046e-05 0.00475198 -0.000319439 -0.00224089 0.0020768 -0.00063193 0.000375575 -0.00240463 0.000782706 0.00124091 0.00182351 0.00116041 0.00286058 0.00372434 -0.00198767 0.00276827 -0.00235984 0.0046827
internal_weight=3205 223 2982 797 247 187 2185 273 1912 1677 1448 1182 629 537 92 490 229 266
internal_count=3205 223 2982 797 247 187 2185 273 1912 1677 1448 1182 629 537 92 490 229 266
is_linear=0
shrinkage=0.0976422


Tree=16
num_leaves=19
num_cat=0
split_feature=14 11 7 12 5 8 7 16 5 14 5 12 7 5 8 8 8 7
split_gain=0.540016 0.240756 0.260048 0.311623 0.344568 0.331496 0.268077 0.23369 0.231844 0.209394 0.200895 0.508147 0.212253 0.208626 0.409874 0.191919 0.218962 0.189216
threshold=0.11253375394886704 0.080427386096767736 8280.0000000000018 0.15327521550021053 87800.000000000015 226351.50000000003 8597.5000000000018 0.0014518686817960038 13382.000000000002 0.087494954498473596 5318.0000000000009 0.13323045647243989 61.500000000000007 10830.000000000002 52865.500000000007 49174.000000000007 20759.000000000004 20048.500000000004
decision_type=2 2 2 2 2 2 2 2 2 2 2 2 2 2 2 2 2 2
left_child=1 2 8 6 5 17 -4 -2 10 -8 12 -12 -1 14 -13 16 -3 -5
right_child=7 15 3 4 -6 -7 9 -9 -10 -11 11 13 -14 -15 -16 -17 -18 -19
leaf_value=0.0056481528836875693 0.0022808428730769739 -0.0020090743856843083 0.0084713637080326663 0.0033610596640674074 0.013399058589286307 -0.0015017683274218382 -0.0016216029588328948 0.0088199701727942753 -0.0057176624103122816 0.0013625953114640018 0.011980221811225125 -0.0010552838718322327 -0.0030124246307107715 -0.0047642187951276926 0.01175729126479459 -0.0023125607690956764 0.0043621586060520398 0.011738455174115751
leaf_weight=27 209 102 33 202 29 125 490 74 97 407 36 96 279 66 29 776 97 31
leaf_count=27 209 102 33 202 29 125 490 74 97 407 36 96 279 66 29 776 97 31
internal_value=3.00497e-05 -0.000360424 0.000260016 0.00104685 0.00336874 0.002447 5.89717e-05 0.00409264 -0.00135824 -0.000250093 -0.000518261 0.00163595 -0.00216752 -0.00032997 0.00192346 -0.00161358 0.00103012 0.00462733
internal_weight=3205 2922 1947 1317 387 358 930 283 630 897 533 227 306 191 125 975 199 233
internal_count=3205 2922 1947 1317 387 358 930 283 630 897 533 227 306 191 125 975 199 233
is_linear=0
shrinkage=0.0976422


Tree=17
num_leaves=19
num_cat=0
split_feature=14 9 8 8 14 13 13 11 14 15 1 5 8 14 0 14 8 14
split_gain=0.441558 0.380899 0.505016 0.398854 0.403991 0.390232 0.202169 0.28297 0.264143 0.190229 0.180036 0.16393 0.161809 0.263224 0.157664 0.14915 0.145971 0.121874
threshold=0.11253375394886704 0.74605076749073518 171321.00000000003 184372.50000000003 0.10033516881389586 0.18137531519459979 0.14259834378145711 0.038459758535051673 0.075907869372924389 0.14350077499130284 4026.0000000000005 8048.5000000000009 78965.000000000015 0.10252413598656791 11799.000000000002 0.086240451103442486 13794.500000000002 0.084332413780421667
decision_type=2 2 2 2 2 2 2 2 2 2 2 2 2 2 2 2 2 2
left_child=1 6 12 -4 -5 -6 15 -8 -9 10 -2 -11 13 -3 -12 -1 -10 -18
right_child=9 2 3 4 5 -7 7 8 16 11 14 -13 -14 -15 -16 -17 17 -19
leaf_value=-0.0024653866912942189 -0.0028111081113310825 -0.0038688569320089457 0.0090283142111250263 -0.0070552851147020878 0.013007585564951489 -0.00061646587128789509 0.01011537489318874 0.0059254437243662188 -0.0036727434281804802 0.00093704144424580659 0.0052261531587578219 0.010864068162674089 -0.0063290956650971664 0.0018954475613157649 -0.0024278848148339767 0.0021938859878724514 -0.0018561682702526586 0.00088178490616871031
leaf_weight=340 51 324 54 56 26 64 29 84 79 28 123 53 161 93 28 76 170 1366
leaf_count=340 51 324 54 56 26 64 29 84 79 28 123 53 161 93 28 76 170 1366
internal_value=3.15666e-05 -0.000321045 -0.00217171 0.00199347 -0.000583874 0.00333383 0.000344511 0.000815829 0.000636887 0.00370554 0.00196227 0.00772076 -0.0036418 -0.0025431 0.00369183 -0.00157059 0.000345554 0.000566657
internal_weight=3205 2922 778 200 146 90 2144 1728 1699 283 202 81 578 417 151 416 1615 1536
internal_count=3205 2922 778 200 146 90 2144 1728 1699 283 202 81 578 417 151 416 1615 1536
is_linear=0
shrinkage=0.0976422


Tree=18
num_leaves=19
num_cat=0
split_feature=14 9 3 11 3 3 3 14 9 3 3 3 14 3 3 14 3 3
split_gain=0.360739 0.310107 0.41313 0.282852 0.282174 0.16519 0.184709 0.173745 0.168316 0.315202 0.450186 0.245214 0.221125 0.364874 0.267668 0.185995 0.180876 0.161427
threshold=0.11253375394886704 0.74605076749073518 35695.500000000007 0.064194731345511666 47350.000000000007 59485.500000000007 5230.0000000000009 0.091647915265991961 0.72018159420113104 27433.000000000004 35695.500000000007 18784.000000000004 0.088440270968484266 15521.500000000002 46543.000000000007 0.098302907616703031 25469.500000000004 19252.000000000004
decision_type=2 2 2 2 2 2 2 2 2 2 2 2 2 2 2 2 2 2
left_child=1 5 17 -4 -5 6 -1 -7 12 11 -11 -10 -8 15 16 -14 -15 -3
right_child=-2 2 3 4 -6 7 8 -9 9 10 -12 -13 13 14 -16 -17 -18 -19
leaf_value=-0.0014217617523784496 0.0033513031684635989 -0.0024632750258329729 0.008949330306094674 0.0067404302725935202 -0.0024779862929791047 -0.0042000115209902336 0.00044227998526140264 0.00017804356864228733 -0.0012856193291831367 0.012564508431306813 -0.0020507193945464076 -0.01018004126059276 0.010093460223649488 -0.0032734501714104915 0.010272013907862382 0.0015178760893459311 0.0019609536717597343 -0.0068762817079830521
leaf_weight=317 283 476 40 41 119 144 670 196 167 33 43 36 90 76 30 40 302 102
leaf_count=317 283 476 40 41 119 144 670 196 167 33 43 36 90 76 30 40 302 102
internal_value=3.01395e-05 -0.000288097 -0.00195824 0.00180427 0 0.000311822 0.000690292 -0.00164316 0.00115231 -0.000969148 0.00424368 -0.00301834 0.00165599 0.00313163 0.00163073 0.00763295 0.000856254 -0.00328883
internal_weight=3205 2922 778 200 160 2144 1804 340 1487 279 76 203 1208 538 408 130 378 578
internal_count=3205 2922 778 200 160 2144 1804 340 1487 279 76 203 1208 538 408 130 378 578
is_linear=0
shrinkage=0.0976422


Tree=19
num_leaves=16
num_cat=0
split_feature=14 8 9 8 8 8 8 9 9 8 8 8 8 9 9
split_gain=0.312326 0.320364 0.189517 0.296382 0.323983 0.250686 0.217239 0.185234 0.199783 0.120608 0.26241 0.26427 0.165318 0.118984 0.286218
threshold=0.12280877261927413 30887.000000000004 0.74605076749073518 135466.50000000003 184372.50000000003 367742.00000000006 378412.00000000006 0.89890203952762338 0.7841436959280913 32147.000000000004 59258.500000000007 54788.000000000007 53688.000000000007 0.64269030533309202 0.62294876941843091
decision_type=2 2 2 2 2 2 2 2 2 2 2 2 2 2 2
left_child=2 -2 9 7 -5 -6 -7 8 -4 -1 11 12 -11 14 -12
right_child=1 -3 3 4 5 6 -8 -9 -10 10 13 -13 -14 -15 -16
leaf_value=-0.0013072096985977666 -0.0024470433530867012 0.0071801347129979882 -0.0014273336856511171 0.0077158572049335888 -0.0047445544141498297 0.009812403245960187 0 0.0041798503803241807 -0.0052132437311228049 0.003302714051057767 -0.00037458504425751706 0.0098958415019663737 -0.0027432556397714203 -0.00055915943703717527 0.0040276844395872834
leaf_weight=364 43 108 344 57 79 26 95 33 235 182 382 48 52 941 216
leaf_count=364 43 108 344 57 79 26 95 33 235 182 382 48 52 941 216
internal_value=2.84444e-05 0.00433958 -0.000182111 -0.00140333 0.0013326 -0.000463697 0.0022333 -0.00257836 -0.00300282 0.000297193 0.000627521 0.00335731 0.0018815 0.000113662 0.001197
internal_weight=3205 151 3054 869 257 200 121 612 579 2185 1821 282 234 1539 598
internal_count=3205 151 3054 869 257 200 121 612 579 2185 1821 282 234 1539 598
is_linear=0
shrinkage=0.0976422


Tree=20
num_leaves=3
num_cat=0
split_feature=14 8
split_gain=0.253609 0.2634
threshold=0.12280877261927413 30887.000000000004
decision_type=2 2
left_child=-1 -2
right_child=1 -3
leaf_value=-0.00016294831972965857 -0.0022180983136257052 0.0064910223924453652
leaf_weight=3054 43 108
leaf_count=3054 43 108
internal_value=2.62978e-05 0.00391151
internal_weight=3205 151
internal_count=3205 151
is_linear=0
shrinkage=0.0976422


Tree=21
num_leaves=5
num_cat=0
split_feature=14 3 3 7
split_gain=0.21673 0.133678 0.184295 0.105849
threshold=0.11166348985693002 13238.500000000002 95075.500000000015 61.500000000000007
decision_type=2 2 2 2
left_child=3 -2 -3 -1
right_child=1 2 -4 -5
leaf_value=0.0056215991009237005 -1.7286406864166707e-05 0.0053296600448504497 -0.002768753149103749 -0.00029812672130029278
leaf_weight=27 115 164 28 2871
leaf_count=27 115 164 28 2871
internal_value=2.30092e-05 0.00248623 0.00405233 -0.000233961
internal_weight=3205 307 192 2898
internal_count=3205 307 192 2898
is_linear=0
shrinkage=0.0976422


Tree=22
num_leaves=14
num_cat=0
split_feature=9 14 3 9 7 7 3 7 3 3 7 7 7
split_gain=0.182051 0.25367 0.18677 0.165856 0.302406 0.15422 0.364388 0.145541 0.150949 0.133099 0.136206 0.123157 0.113424
threshold=0.89890203952762338 0.14215752003256332 6798.5000000000009 0.74605076749073518 30522.500000000004 62949.500000000007 136440.00000000003 44058.500000000007 59485.500000000007 5230.0000000000009 61.500000000000007 3063.0000000000005 39331.000000000007
decision_type=2 2 2 2 2 2 2 2 2 2 2 2 2
left_child=3 2 -2 5 -5 7 -7 8 9 10 -1 -11 -6
right_child=1 -3 -4 4 12 6 -8 -9 -10 11 -12 -13 -14
leaf_value=0.0051083593812171878 0.0006203625408493956 -0.0025529950842984222 0.0089636174536700929 -0.0022365508069009626 0.0053681489126675601 -0.0078342800211872697 0.0010706267460608267 0.0057833029571945638 -0.0029418624435358742 0.0049767016205940892 -0.0018276079187005705 0.00080527562750634955 0.00013423700029174576
leaf_weight=27 48 47 67 683 67 70 105 48 117 71 290 1457 108
leaf_count=27 48 47 67 683 67 70 105 48 117 71 290 1457 108
internal_value=2.02564e-05 0.00319473 0.00568135 -0.000145454 -0.00129773 0.000300569 -0.00244793 0.000549726 0.000408294 0.000632012 -0.00116105 0.00101523 0.00226249
internal_weight=3205 162 115 3043 858 2185 175 2010 1962 1845 317 1528 175
internal_count=3205 162 115 3043 858 2185 175 2010 1962 1845 317 1528 175
is_linear=0
shrinkage=0.0976422


Tree=23
num_leaves=5
num_cat=0
split_feature=9 8 9 12
split_gain=0.153886 0.236535 0.167316 0.137395
threshold=0.87109180318362733 30941.500000000004 0.72018159420113104 0.036452604726291825
decision_type=2 2 2 2
left_child=2 -2 3 -1
right_child=1 -3 -4 -5
leaf_value=-0.0043952884975660992 -0.00063906872768811301 0.0055752682483859919 -0.001062449647518768 0.00058581031382634954
leaf_weight=52 109 114 1187 1743
leaf_count=52 109 114 1187 1743
internal_value=2.05938e-05 0.00248799 -0.000160113 0.000428339
internal_weight=3205 223 2982 1795
internal_count=3205 223 2982 1795
is_linear=0
shrinkage=0.0976422


Tree=24
num_leaves=7
num_cat=0
split_feature=14 14 14 14 14 14
split_gain=0.13507 0.119885 0.109959 0.113411 0.144623 0.10489
threshold=0.10997451795484804 0.10331833165452192 0.089356741891938221 0.076328929326698089 0.071903513880799866 0.090399843695359153
decision_type=2 2 2 2 2 2
left_child=1 2 3 4 -1 -4
right_child=-2 -3 5 -5 -6 -7
leaf_value=-0.00052879802843222047 0.0018100938831902714 -0.0017203437987513611 0.0038464825511522454 -0.0011516614121471443 0.0042539097016199455 0.00041934412714180364
leaf_weight=158 356 421 92 897 91 1190
leaf_count=158 356 421 92 897 91 1190
internal_value=1.76311e-05 -0.000201887 5.60702e-05 -0.000631302 0.00117529 0.00068277
internal_weight=3205 2849 2428 1146 249 1282
internal_count=3205 2849 2428 1146 249 1282
is_linear=0
shrinkage=0.0976422


Tree=25
num_leaves=6
num_cat=0
split_feature=14 9 14 14 14
split_gain=0.110921 0.164428 0.137945 0.126613 0.172987
threshold=0.10925528491019067 0.74605076749073518 0.099379077900441551 0.10331833165452192 0.089356741891938221
decision_type=2 2 2 2 2
left_child=1 3 -3 4 -1
right_child=-2 2 -4 -5 -6
leaf_value=-0.00029334940752107216 0.0016111959675659188 -0.002660383949703166 1.7145569950297281e-05 -0.0017609669659802883 0.0015918193313116901
leaf_weight=1042 368 402 315 259 819
leaf_count=1042 368 402 315 259 819
internal_value=1.63054e-05 -0.000185975 -0.00146526 0.000240205 0.000528631
internal_weight=3205 2837 717 2120 1861
internal_count=3205 2837 717 2120 1861
is_linear=0
shrinkage=0.0976422


Tree=26
num_leaves=3
num_cat=0
split_feature=3 3
split_gain=0.106423 0.138189
threshold=26649.500000000004 48256.500000000007
decision_type=2 2
left_child=-1 -2
right_child=1 -3
leaf_value=-0.00048499250707628998 0.001524203312067143 -0.00038812568182642324
leaf_weight=1777 780 648
leaf_count=1777 780 648
internal_value=1.41501e-05 0.000646078
internal_weight=3205 1428
internal_count=3205 1428
is_linear=0
shrinkage=0.0976422


end of trees

feature_importances:
Previous=49
TotalFleet=45
CARS_PER_CAPITA=45
EURO_4=39
EURO_5_PER_CAPITA=39
Previous_PER_CAPITA=28
EURO_6=27
EURO_5=26
EURO_2_PER_CAPITA=19
EURO_1=16
EURO_4_PER_CAPITA=14
EURO_6_PER_CAPITA=10
EURO_3=8
EURO_CLEAN=8
EURO_3_PER_CAPITA=6
EURO_2=5
EURO_CLEAN_PER_CAPITA=5
EURO_1_PER_CAPITA=4

parameters:
[boosting: gbdt]
[objective: regression]
[metric: mape]
[tree_learner: serial]
[device_type: cpu]
[data_sample_strategy: bagging]
[data: ]
[valid: ]
[num_iterations: 196]
[learning_rate: 0.0976422]
[num_leaves: 19]
[num_threads: 0]
[seed: 0]
[deterministic: 0]
[force_col_wise: 0]
[force_row_wise: 0]
[histogram_pool_size: -1]
[max_depth: 11]
[min_data_in_leaf: 26]
[min_sum_hessian_in_leaf: 0.001]
[bagging_fraction: 0.834628]
[pos_bagging_fraction: 1]
[neg_bagging_fraction: 1]
[bagging_freq: 0]
[bagging_seed: 3]
[bagging_by_query: 0]
[feature_fraction: 0.672099]
[feature_fraction_bynode: 1]
[feature_fraction_seed: 2]
[extra_trees: 0]
[extra_seed: 6]
[early_stopping_round: 0]
[early_stopping_min_delta: 0]
[first_metric_only: 0]
[max_delta_step: 0]
[lambda_l1: 0.160717]
[lambda_l2: 1.87626]
[linear_lambda: 0]
[min_gain_to_split: 0.104]
[drop_rate: 0.1]
[max_drop: 50]
[skip_drop: 0.5]
[xgboost_dart_mode: 0]
[uniform_drop: 0]
[drop_seed: 4]
[top_rate: 0.2]
[other_rate: 0.1]
[min_data_per_group: 100]
[max_cat_threshold: 32]
[cat_l2: 10]
[cat_smooth: 10]
[max_cat_to_onehot: 4]
[top_k: 20]
[monotone_constraints: ]
[monotone_constraints_method: basic]
[monotone_penalty: 0]
[feature_contri: ]
[forcedsplits_filename: ]
[refit_decay_rate: 0.9]
[cegb_tradeoff: 1]
[cegb_penalty_split: 0]
[cegb_penalty_feature_lazy: ]
[cegb_penalty_feature_coupled: ]
[path_smooth: 0]
[interaction_constraints: ]
[verbosity: -1]
[saved_feature_importance_type: 0]
[use_quantized_grad: 0]
[num_grad_quant_bins: 4]
[quant_train_renew_leaf: 0]
[stochastic_rounding: 1]
[linear_tree: 0]
[max_bin: 255]
[max_bin_by_feature: ]
[min_data_in_bin: 3]
[bin_construct_sample_cnt: 200000]
[data_random_seed: 1]
[is_enable_sparse: 1]
[enable_bundle: 1]
[use_missing: 1]
[zero_as_missing: 0]
[feature_pre_filter: 1]
[pre_partition: 0]
[two_round: 0]
[header: 0]
[label_column: ]
[weight_column: ]
[group_column: ]
[ignore_column: ]
[categorical_feature: ]
[forcedbins_filename: ]
[precise_float_parser: 0]
[parser_config_file: ]
[objective_seed: 5]
[num_class: 1]
[is_unbalance: 0]
[scale_pos_weight: 1]
[sigmoid: 1]
[boost_from_average: 1]
[reg_sqrt: 0]
[alpha: 0.9]
[fair_c: 1]
[poisson_max_delta_step: 0.7]
[tweedie_variance_power: 1.5]
[lambdarank_truncation_level: 30]
[lambdarank_norm: 1]
[label_gain: ]
[lambdarank_position_bias_regularization: 0]
[eval_at: ]
[multi_error_top_k: 1]
[auc_mu_weights: ]
[num_machines: 1]
[local_listen_port: 12400]
[time_out: 120]
[machine_list_filename: ]
[machines: ]
[gpu_platform_id: -1]
[gpu_device_id: -1]
[gpu_use_dp: 0]
[num_gpu: 1]

end of parameters

pandas_categorical:[]
